Language model created by QuickLM on Tue Apr  3 15:54:52 EDT 2018
Copyright (c) 1996-2010 Carnegie Mellon University and Alexander I. Rudnicky

The model is in standard ARPA format, designed by Doug Paul while he was at MITRE.

The code that was used to produce this language model is available in Open Source.
Please visit http://www.speech.cs.cmu.edu/tools/ for more information

The (fixed) discount mass is 0.5. The backoffs are computed using the ratio method.
This model based on a corpus of 41 sentences and 47 words

\data\
ngram 1=47
ngram 2=82
ngram 3=66

\1-grams:
-0.8869 </s> -0.3010
-0.8869 <s> -0.2407
-2.4997 ARE -0.2997
-2.1987 BRIGHTNESS -0.2955
-2.4997 CALCULATOR -0.2407
-2.4997 CAPS -0.2997
-2.4997 CHROME -0.2407
-2.4997 CLOSE -0.2407
-2.4997 DATE -0.2407
-2.1987 DOWN -0.2407
-2.4997 EDGE -0.2407
-2.4997 EXIT -0.2407
-2.4997 EXPLORER -0.2407
-2.1987 FACEBOOK -0.2407
-2.1987 FILE -0.2969
-2.4997 FILES -0.2407
-2.4997 FINE -0.2407
-2.4997 FLUTTER -0.2407
-2.1987 GITHUB -0.2407
-2.1987 GIVE -0.2983
-2.4997 HINDI -0.2407
-2.4997 HOW -0.2997
-2.4997 INTERNET -0.2997
-2.4997 LINKEDIN -0.2407
-2.1987 LIST -0.2969
-2.4997 LOCK -0.2407
-2.1987 MANAGER -0.2407
-2.1987 ME -0.2983
-2.1987 MSWORD -0.2407
-2.4997 MUTE -0.2407
-2.4997 NETBEANS -0.2407
-2.4997 NEWS -0.2407
-2.4997 NEXT -0.2407
-2.4997 NOTEPAD -0.2407
-1.2692 OPEN -0.2770
-2.4997 PAINT -0.2407
-2.4997 PAUSE -0.2407
-2.1987 PLAY -0.2375
-2.4997 PREVIOUS -0.2407
-2.1987 SONG -0.2407
-2.4997 TASK -0.2983
-2.4997 TIME -0.2407
-2.1987 TWITTER -0.2407
-2.1987 UP -0.2407
-2.4997 VLC -0.2407
-2.1987 VOLUME -0.2955
-2.4997 YOU -0.2407

\2-grams:
-1.6128 <s> BRIGHTNESS 0.0000
-1.9138 <s> CAPS 0.0000
-1.9138 <s> CLOSE 0.0000
-1.9138 <s> EXIT 0.0000
-1.9138 <s> FINE 0.0000
-1.9138 <s> FLUTTER 0.0000
-1.6128 <s> GIVE 0.0000
-1.9138 <s> HINDI 0.0000
-1.9138 <s> HOW 0.0000
-1.9138 <s> LINKEDIN 0.0000
-1.6128 <s> LIST 0.0000
-1.9138 <s> MUTE 0.0000
-1.9138 <s> NEWS 0.0000
-1.9138 <s> NEXT 0.0000
-0.6834 <s> OPEN 0.0000
-1.9138 <s> PAUSE 0.0000
-1.6128 <s> PLAY 0.0000
-1.9138 <s> PREVIOUS 0.0000
-1.9138 <s> TASK 0.0000
-1.6128 <s> VOLUME 0.0000
-0.3010 ARE YOU 0.0000
-0.6021 BRIGHTNESS DOWN 0.0000
-0.6021 BRIGHTNESS UP 0.0000
-0.3010 CALCULATOR </s> -0.3010
-0.3010 CAPS LOCK 0.0000
-0.3010 CHROME </s> -0.3010
-0.3010 CLOSE </s> -0.3010
-0.3010 DATE </s> -0.3010
-0.3010 DOWN </s> -0.3010
-0.3010 EDGE </s> -0.3010
-0.3010 EXIT </s> -0.3010
-0.3010 EXPLORER </s> -0.3010
-0.3010 FACEBOOK </s> -0.3010
-0.6021 FILE EXPLORER 0.0000
-0.6021 FILE MANAGER 0.0000
-0.3010 FILES </s> -0.3010
-0.3010 FINE </s> -0.3010
-0.3010 FLUTTER </s> -0.3010
-0.3010 GITHUB </s> -0.3010
-0.3010 GIVE ME 0.0000
-0.3010 HINDI </s> -0.3010
-0.3010 HOW ARE 0.0000
-0.3010 INTERNET EDGE 0.0000
-0.3010 LINKEDIN </s> -0.3010
-0.6021 LIST FILES 0.0000
-0.6021 LIST SONG 0.0000
-0.3010 LOCK </s> -0.3010
-0.3010 MANAGER </s> -0.3010
-0.6021 ME DATE 0.0000
-0.6021 ME TIME 0.0000
-0.3010 MSWORD </s> -0.3010
-0.3010 MUTE </s> -0.3010
-0.3010 NETBEANS </s> -0.3010
-0.3010 NEWS </s> -0.3010
-0.3010 NEXT </s> -0.3010
-0.3010 NOTEPAD </s> -0.3010
-1.5315 OPEN CALCULATOR 0.0000
-1.5315 OPEN CHROME 0.0000
-1.2304 OPEN FACEBOOK 0.0000
-1.2304 OPEN FILE 0.0000
-1.2304 OPEN GITHUB 0.0000
-1.5315 OPEN INTERNET 0.0000
-1.2304 OPEN MSWORD 0.0000
-1.5315 OPEN NETBEANS 0.0000
-1.5315 OPEN NOTEPAD 0.0000
-1.5315 OPEN PAINT 0.0000
-1.2304 OPEN TWITTER 0.0000
-1.5315 OPEN VLC 0.0000
-0.3010 PAINT </s> -0.3010
-0.3010 PAUSE </s> -0.3010
-0.6021 PLAY </s> -0.3010
-0.6021 PLAY SONG 0.0000
-0.3010 PREVIOUS </s> -0.3010
-0.3010 SONG </s> -0.3010
-0.3010 TASK MANAGER 0.0000
-0.3010 TIME </s> -0.3010
-0.3010 TWITTER </s> -0.3010
-0.3010 UP </s> -0.3010
-0.3010 VLC </s> -0.3010
-0.6021 VOLUME DOWN 0.0000
-0.6021 VOLUME UP 0.0000
-0.3010 YOU </s> -0.3010

\3-grams:
-0.6021 <s> BRIGHTNESS DOWN
-0.6021 <s> BRIGHTNESS UP
-0.3010 <s> CAPS LOCK
-0.3010 <s> CLOSE </s>
-0.3010 <s> EXIT </s>
-0.3010 <s> FINE </s>
-0.3010 <s> FLUTTER </s>
-0.3010 <s> GIVE ME
-0.3010 <s> HINDI </s>
-0.3010 <s> HOW ARE
-0.3010 <s> LINKEDIN </s>
-0.6021 <s> LIST FILES
-0.6021 <s> LIST SONG
-0.3010 <s> MUTE </s>
-0.3010 <s> NEWS </s>
-0.3010 <s> NEXT </s>
-1.5315 <s> OPEN CALCULATOR
-1.5315 <s> OPEN CHROME
-1.2304 <s> OPEN FACEBOOK
-1.2304 <s> OPEN FILE
-1.2304 <s> OPEN GITHUB
-1.5315 <s> OPEN INTERNET
-1.2304 <s> OPEN MSWORD
-1.5315 <s> OPEN NETBEANS
-1.5315 <s> OPEN NOTEPAD
-1.5315 <s> OPEN PAINT
-1.2304 <s> OPEN TWITTER
-1.5315 <s> OPEN VLC
-0.3010 <s> PAUSE </s>
-0.6021 <s> PLAY </s>
-0.6021 <s> PLAY SONG
-0.3010 <s> PREVIOUS </s>
-0.3010 <s> TASK MANAGER
-0.6021 <s> VOLUME DOWN
-0.6021 <s> VOLUME UP
-0.3010 ARE YOU </s>
-0.3010 BRIGHTNESS DOWN </s>
-0.3010 BRIGHTNESS UP </s>
-0.3010 CAPS LOCK </s>
-0.3010 FILE EXPLORER </s>
-0.3010 FILE MANAGER </s>
-0.6021 GIVE ME DATE
-0.6021 GIVE ME TIME
-0.3010 HOW ARE YOU
-0.3010 INTERNET EDGE </s>
-0.3010 LIST FILES </s>
-0.3010 LIST SONG </s>
-0.3010 ME DATE </s>
-0.3010 ME TIME </s>
-0.3010 OPEN CALCULATOR </s>
-0.3010 OPEN CHROME </s>
-0.3010 OPEN FACEBOOK </s>
-0.6021 OPEN FILE EXPLORER
-0.6021 OPEN FILE MANAGER
-0.3010 OPEN GITHUB </s>
-0.3010 OPEN INTERNET EDGE
-0.3010 OPEN MSWORD </s>
-0.3010 OPEN NETBEANS </s>
-0.3010 OPEN NOTEPAD </s>
-0.3010 OPEN PAINT </s>
-0.3010 OPEN TWITTER </s>
-0.3010 OPEN VLC </s>
-0.3010 PLAY SONG </s>
-0.3010 TASK MANAGER </s>
-0.3010 VOLUME DOWN </s>
-0.3010 VOLUME UP </s>

\end\